-10.632455241719
-10.5751698834923
-10.5115549919997
-10.5009711072855
-10.3972374509275
-10.3663958597405
-10.2925043292555
-10.2391818764358
-10.1848664242162
-10.1642236038307
-10.12308761655
-10.0781489974016
-9.98979294157119
-9.95483280987589
-9.90809341317883
-9.89447031568359
-9.82882941990011
-9.78734797192167
-9.7593098805151
-9.70941978708834
-9.67545528109145
-9.62206441910891
-9.57586449508505
-9.54699409866298
-9.50413103844091
-9.46359514131789
-9.40691323036127
-9.39381469311891
-9.33680166854258
-9.29853115921652
-9.27408888902251
-9.26334182763644
-9.23107845878144
-9.21157743778312
-9.19732064188117
-9.18764510277455
-9.17991459411656
-9.17359447128948
-9.17435840692826
-9.17906108942242
-9.18510154900649
-9.20371156709063
-9.21170382229537
-9.22472693945423
-9.23938668584648
-9.25764735660321
-9.27808715311851
-9.30470175030078
-9.31711632841737
-9.33323750381122
-9.34304977358505
-9.34722332814234
-9.3553270775077
-9.35877587871555
-9.36605817295379
-9.3669392769273
-9.36798899304396
-9.3670995677248
-9.36517241395139
-9.36340594134376
-9.35905161805461
-9.35575874189136
-9.35196277589356
-9.35010975071982
-9.34546413542451
-9.33762791469172
-9.33432350772513
-9.32472804947571
-9.30825927159423
-9.29447606782722
-9.26474775692135
-9.24998708701748
-9.22360776508796
-9.20757396980287
-9.16034669417346
-9.14396767227682
-9.09346766990939
-9.05863878525498
-9.02518442762783
-8.98183491300573
-8.94163779329494
-8.91128186050068
-8.88847762645585
-8.86224654168821
-8.84028331933845
-8.82163305101741
-8.80966490776235
-8.79047760619734
-8.77802762444292
-8.77040065935868
-8.75517495027113
-8.75310927776655
-8.74766620452987
-8.74779284983745
-8.75328788703737
-8.75587430701353
-8.7627202500047
-8.77165722967018
-8.78393063516294
-8.79703305252712
-8.80527637694599
-8.82345947704853
-8.82789260916463
-8.83610417774045
-8.84231544819061
-8.84689784019921
-8.8472882182938
-8.84400737928995
-8.8378537903423
-8.83696452709873
-8.82691306695245
-8.82553795305817
-8.81582200425946
-8.81429614347652
-8.81273015907525
-8.81145798001823
-8.81206755253343
-8.81362675414166
-8.82068719680432
-8.82292579936531
-8.83061964175074
-8.83525971482903
-8.8469970968059
-8.85140820804159
-8.86572504197006
-8.86872112060164
-8.88424894152391
-8.89230770906622
-8.90772230109464
-8.93160296288947
-8.9532593402501
-8.96543223667649
-8.98228167071565
-8.98925105576646
-8.99797671910021
-9.00295478060094
-9.0029998219595
-8.99527199325355
-8.9894179302962
-8.96827217515142
-8.92752447421083
-8.90045284578913
-8.88092138476597
-8.83319882668114
-8.77955164492292
-8.66822855432994
-8.63126005742216
-8.56534138316641
-8.39541494827273
-8.36462549887972
-8.17007131967834
-8.07441015912728
-7.95459038047662
-7.87296554259975
-7.73362409566508
-7.53240989494176
-7.32371881701847
-7.28988785497173
-7.04850443778082
-6.98316571605729
-6.75379080826663
-6.64859443715389
-6.50761170281218
-6.33723581645928
-6.31855845274211
-6.11480543937553
-6.06161689097191
-5.98884924767632
-5.85563750228581
-5.80831383702634
-5.72645653782117
-5.66329569162311
-5.59151386516165
-5.55361075021411
-5.53772105164207
-5.48870746767218
-5.47395867811938
-5.45818283417183
-5.45310404807441
-5.44986834529315
-5.45122765787225
-5.45796168027944
-5.45967431448286
-5.46963548667692
-5.48466635113074
-5.49166751193777
-5.5008776711813
-5.50564849553488
-5.51064181914147
-5.51209073185547
-5.50273511544323
-5.49956806681214
-5.4793465242232
-5.46594555028002
-5.45376646914853
-5.4373955325779
-5.41921324106945
-5.4063473321836
-5.38561847905497
-5.36543960454845
-5.3504729585067
-5.33981828202703
-5.33702617936741
-5.33936244573201
-5.35021878817816
-5.37570907726299
-5.37750383739046
-5.408625407029
-5.44206244860089
-5.48097488356571
-5.49951191789619
-5.53610394022346
-5.56908823594525
-5.60763089782155
-5.6514230585504
-5.69798052289565
-5.74321243475545
-5.80852987538715
-5.84500256301702
-5.90012881918093
-5.92727271440743
-5.96630594063089
-6.00128095196732
-6.06375092555943
-6.06914920271139
-6.11147710716518
-6.13448009104591
-6.16445549451206
-6.17708769403167
-6.17941434522
-6.17767661719738
-6.1748569911786
-6.15753201054777
-6.14979959496329
-6.13938248174221
-6.10606446884481
-6.09576435933981
-6.06110941363864
-6.04146356522359
-6.02949754325172
-6.00811010689941
-5.97493105568594
-5.96011870218158
-5.94443815977688
-5.92355663440049
-5.90723245383415
-5.88929049543482
-5.86926847092944
-5.85727706347869
-5.82686034201359
-5.8256916258631
-5.80198201934632
-5.78234250868072
-5.75391842884347
-5.72763771673916
-5.67670571280205
-5.64978654257151
-5.61371390795599
-5.53542629081957
-5.50117079835491
-5.40721903834634
-5.35559988334572
-5.26969691330248
-5.21554695952096
-5.15032218110616
-5.05110159024841
-4.98532438520505
-4.9115735231838
-4.78632458644051
-4.69618167553608
-4.61420168400822
-4.57713665135781
-4.45707804642312
-4.40975491143228
-4.33923339109013
-4.25123112217915
-4.17607711484068
-4.13360597522802
-4.09094051217708
-4.02147821960709
-4.00504639410282
-3.9390505381396
-3.91279037298809
-3.8796237542382
-3.81693980948294
-3.76480345371783
-3.72643014313735
-3.67304783213763
-3.65041679100756
-3.61578548907139
-3.51239647275635
-3.48240632847564
-3.39071087812862
-3.34126641085222
-3.29301124780881
-3.17590158081664
-3.13747115280479
-3.08118698085664
-2.95323028590323
-2.93151671298923
-2.82964861793698
-2.81830752365043
-2.75808786135056
-2.68732709890946
-2.65897489480917
-2.63900214798528
-2.61830799249827
-2.60680399034886
-2.59337168767942
-2.59091265033998
-2.59134145575985
-2.59716507645479
-2.60602939037785
-2.6344196309711
-2.64744524980512
-2.70524831124878
-2.72583193794589
-2.79158014784932
-2.85474580734637
-2.91786607709413
-2.99013942007338
-3.05321813465572
-3.08975905320966
-3.14725246775406
-3.23406597654228
-3.3017911719685
-3.37181122654469
-3.41816069243717
-3.49488712851002
-3.553139548639
-3.61047834130721
-3.65043959336011
-3.70877689391281
-3.72447059601479
-3.76705725842952
-3.77071686631302
-3.77118342277415
-3.76358812778602
-3.7151456124164
-3.66089146731587
-3.62038917464646
-3.54269096371821
-3.38071007952717
-3.22868360306619
-3.00969258332503
-2.80269124860775
-2.7055590729682
-2.43744889496801
-2.17337376648944
-1.7169957416624
-1.56741694614911
-1.11524594484939
-0.8682852225335
-0.29879220203735
0.174753141795147
0.709280267642769
1.10209172537752
1.36899351147342
1.9994330457319
2.2039658550814
2.71834472183216
3.51678721369912
4.13140699159767
4.37168048610109
4.75492846004809
5.18646151174564
5.66281841308986
6.47609248704899
6.69246223830866
7.09003615756731
7.51243502517376
7.9437712813332
8.1576204521082
8.42883245980514
8.69231019766526
9.06792302673251
9.14990711097506
9.44166483996112
9.57869699770014
9.77017213097293
9.96300616707846
10.0659797091251
10.2010975935929
10.3720354619
10.5107940157958
10.6000051984169
10.7470913065982
10.8207866163029
10.9636887155481
11.1322030353887
11.3525062849434
11.5139673478153
11.7273446058157
11.796767223987
11.959184670261
12.1336034078142
12.3526777889621
12.5716102592988
12.7257537451638
12.7586539370733
12.9089753493564
13.0657081813956
13.2865639544179
13.3890316304752
13.6077400022385
13.6259537847135
13.8196226928291
14.1157859680976
14.2121334866884
14.4064308973342
14.621655110026
14.9958284048774
15.0893259781565
15.4633637193101
15.6711881682868
16.1311013708536
16.2208969638323
16.5891904976657
17.2144476638042
17.4457219884789
17.926584183926
18.1771717121186
18.7443904583967
19.0834385050849
19.5940517455793
20.0695437023189
20.6875827453955
20.9819740956807
21.5279494550451
22.0693654932358
22.116056790196
22.6661306656464
23.1413583911505
23.2300504454383
23.7302404933141
24.0578011186936
24.2670791210489
24.371516203166
24.5230364996649
24.7223091205812
24.826808750126
24.8580905091907
24.8947294848839
24.8701347977037
24.8361631475939
24.7617336673395
24.7004850960671
24.4588225113131
24.4395823310649
24.1192784573614
24.0819842215902
23.7412728108978
23.5817963802204
23.246075651045
23.136292754488
22.952393139173
22.6145796757439
22.3524478448821
22.1314415205674
22.0401439597257
21.8829313510525
21.6183560887319
21.3907441816275
21.3001319085563
21.2159815512702
21.1228875815612
21.0728335532157
21.0292984972646
21.0140233351146
21.040153070164
21.1424569171396
21.2126030654911
21.3765268951241
21.5344691791489
21.6237796654125
21.9018758962412
22.046959256261
22.3906592949522
22.4711526009231
22.8006690303133
22.9346837262453
23.1577181264488
23.4321601961313
23.6171956163017
23.6942357981979
23.758969753887
23.7217128028619
23.6427723548228
23.5606245209711
23.2736096681245
23.138162518115
22.779304250497
22.2729625121695
22.2112968021578
21.5766598891356
20.9861267798866
20.8306228449664
20.1326547499811
19.9947843395742
19.2554322898108
19.0967927473535
18.724247867745
18.2273036402512
17.6762850236721
17.3042793035554
17.1873840980873
16.973944149941
16.5504420457505
16.3099130939921
16.2637177412386
16.0948492926186
15.9582536132473
15.9173975697049
15.8747830805576
15.8809219772814
15.9297915941837
15.9493560049045
16.0479258505426
16.2525810093909
16.2788088962856
16.5677213643319
16.7402010409136
16.9381507778963
17.0572409337055
17.3852483197106
17.4998495141875
17.8175002160106
17.8504692316766
18.0758476881739
18.153043996665
18.3092468629083
18.3680182146084
18.3817795633411
18.381228238554
18.3189651535167
18.2734792526381
18.0354227812568
17.9034857532764
17.6632839938932
17.4089081078794
17.2298712309262
17.0621298928767
16.6895634387149
16.472605816254
15.9703008183265
15.7177836172764
15.3248763735859
14.9505733737257
14.4629981485808
14.3834612766164
13.8176789503169
13.6527893976788
13.2644841467761
12.7666949877312
12.6142973230726
12.0989200277937
11.9259879370563
11.4941644542942
11.0380743418214
10.953522802301
10.4392243131252
10.2242496278566
9.92887283417064
9.76919003277356
9.48506116497511
9.1230314954843
9.06500741291078
8.76514486635603
8.49388330611275
8.36363009296082
8.25619711778235
8.09623005658194
7.93620978413608
7.81451203688787
7.70666510129452
7.62359953332626
7.54551136979711
7.47878772313491
7.47484181151666
7.42631122869491
7.4114481383629
7.40583218702435
7.40545527443778
7.43663387532215
7.46853942607498
7.50329084486806
7.53561943140889
7.5679128140451
7.68649579426696
7.76773349231498
7.83459883215241
7.90389398636811
8.10989392707549
8.13473408775472
8.35028769255402
8.47477534466401
8.58046638900262
8.86860764727572
9.02503607440477
9.41369118320596
9.62627974229601
9.6961992458681
10.0043914720142
10.4241525550101
10.7388062480838
11.1257766384223
11.2803674851697
11.7124918528237
12.0630174814761
12.329836929749
12.8499488126431
12.9492149383595
13.3983740904047
13.56421448642
14.0133318296036
14.1459038177375
14.4465872499632
14.5344324709353
14.7192448373317
14.8579205651553
14.9447603721107
14.9479556883146
14.910404020904
14.8654639656797
14.7415173629443
14.6388364242619
14.4584280236268
14.2518323075769
13.8356623428302
13.5233895152849
13.1533296878068
12.910179797243
12.3179604780158
11.8914928560794
11.5621828985056
10.9983221280886
10.8352092528914
10.3000204096459
9.99559623320838
9.31407278307571
8.81435153748106
8.70582593520077
8.18545271653852
7.60794046074877
7.40642103896914
7.07465479014123
6.6704488786044
6.34334154544969
6.2794912170698
5.86271819153828
5.68762517375297
5.47541302826104
5.29552667764893
5.07786462262675
4.78424801809575
4.63652598297126
4.48337608672223
4.24457522366059
4.1809071577748
3.97986098494775
3.93803506625644
3.73770392344522
3.60245446063838
3.53759812199287
3.35814200392092
3.2912129759777
3.19544470179274
3.04392322814377
2.98227277001995
2.86335740084442
2.65976515543896
2.54713228751621
2.49756788763211
2.29367755449638
2.18421914211913
2.09951552331566
1.98621936829413
1.81730719306679
1.73458356424972
1.55483648462917
1.49740395388329
1.31822450384879
1.27325421092452
1.17009142739919
0.981296661749347
0.928038213190777
0.874648501462836
0.720908547292074
0.66295890191317
0.559011378796412
0.478297666799908
0.405753750746306
0.323600230064759
0.248100851055443
0.115459435021312
0.067735345226495
-0.0137537226049284
-0.0645552788690246
-0.124585963523818
-0.21309792950195
-0.296020150240884
-0.332151693386764
-0.414645486885524
-0.460168647267021
-0.521737851465756
-0.544664926256041
-0.608042496751569
-0.677642045390735
-0.727085356466598
-0.761488730811708
-0.809042368520206
-0.8375606332256
-0.85956949088258
-0.896982748206367
-0.954147254451335
-0.995090822868648
-1.01612865902281
-1.04716413206197
-1.09190440719899
-1.11105588458914
-1.14502555303182
-1.16589093896512
-1.20511042972441
-1.21764479544508
-1.25230563270034
-1.26534691553318
-1.26826641885529
-1.26899746930742
-1.26635926493457
-1.2533430405561
-1.21105570197731
-1.1787622558978
-1.14745738325496
-1.10291033492017
-1.05352613507563
-0.97530857921856
-0.931529504886127
-0.889756847878704
-0.843611046867553
-0.70539923057062
-0.667696706916139
-0.578767216986469
-0.485080715685627
-0.460509202585344
-0.301118473043588
-0.227543983708719
-0.0966248840532017
-0.0909270106861488
0.0334462553809721
0.205036655425229
0.290382647742599
0.393819344528116
0.508261648860341
0.550676923633164
0.75898447970726
0.880865042699742
0.904780040014233
1.11882932874789
1.15930254838083
1.36520653527538
1.48329420394998
1.51223709330874
1.66380690049905
1.74288422127983
1.86360473146017
1.93169261219166
1.97304209880841
2.00094977420941
2.02220463717237
2.02188090773695
1.98788678304311
1.94073954134615
1.88571465559671
1.78210155687512
1.66541868067431
1.53782677202509
1.26250554717144
1.14479164818445
0.753955806051182
0.705618853384361
0.391388992332693
0.12056114393648
-0.214464981064697
-0.456950971200956
-0.906553808177181
-0.939044819009052
-1.45963826509995
-1.86097227881226
-2.08322484199408
-2.382551240738
-2.68032099397193
-2.95655588987167
-3.41698868557588
-3.64113719192683
-3.96006872997628
-4.31201936626485
-4.38708977744765
-4.78646518938149
-4.90675810085299
-5.2129887111139
-5.42194926318136
-5.71205609190555
-5.97156535663113
-6.09930645628945
-6.18497668415488
-6.41380628392904
-6.50612480404185
-6.71455154500047
-6.85288429026247
-7.05636629244445
-7.10275096351322
-7.25011257088665
-7.35946216834209
-7.4050479722641
-7.51036191507404
-7.57152654658612
-7.65121010679431
-7.76066372282435
-7.82489817708657
-7.8660424386389
-7.90075215824812
-7.97329851655721
-8.03219302336231
-8.07405790135697
-8.10285201519903
-8.16572352102907
-8.17386431191494
-8.2092227821501
-8.2356873355334
-8.25779924496556
-8.26824009769931
-8.27547754460475
-8.28249086006219
-8.29012588205471
-8.30065287540079
-8.30402859543304
-8.30915731951006
-8.31188180516747
-8.32059857476233
-8.32434356581902
-8.33198991849803
-8.33652402215649
-8.35218086067126
-8.35902288453253
-8.3716796839036
-8.38298184274702
-8.39493385384743
-8.40833254631203
-8.4151433731997
-8.43564520039943
-8.44026916036495
-8.46000688029113
-8.46984312881065
-8.48974995044296
-8.50373226592101
-8.51558775573002
-8.52879102936872
-8.54810948409347
-8.57089064421507
-8.58585117078616
-8.60208200478344
-8.63087708560636
-8.65669462356606
-8.66646484966305
-8.68502318807962
-8.7026410831521
-8.73587120814
-8.73749048933887
-8.77591160690611
-8.79030647277632
-8.82131016059781
-8.84643904714865
-8.87356011472605
-8.89532197888794
-8.94124631225492
-8.95004369619377
-8.97937213527601
-9.02340735897623
-9.03547518817712
-9.08161946314395
-9.08891962241161
-9.12976856454869
-9.15326256718342
-9.20151502160792
-9.22799617605535
-9.28100582739166
-9.35915200624489
-9.37843668855452
-9.42585186732221
-9.53398247042448
-9.59802056489503
-9.61395394024887
-9.66816386854676
-9.74980293819154
-9.82544638145082
-9.86292365357123
-9.90887656896049
-9.95537606451523
-9.97312172862002
-10.0179703557741
-10.0354491918146
-10.0532827583719
-10.0602257333392
-10.0614543831467
-10.0637532217686
-10.0597956029685
-10.0540925631549
-10.0280070539287
-10.0109476720884
-9.99465594226958
-9.97919254911192
-9.95756810424717
-9.93501398540799
-9.92344294049319
-9.90919853782909
-9.89581334265133
-9.89369675467356
-9.8920364626478
-9.89800900513985
-9.90656950819713
-9.93837553644971
-9.9590163820477
-9.97285184718771
-10.026029876615
-10.0539210099172
-10.0741516387378
-10.1297836334677
-10.1573181067781
-10.2232345673822
-10.2412535334499
-10.2682975840229
-10.3462536008887
-10.3568441339502
-10.4084027801446
-10.4458534163673
-10.4908199731891
-10.5102599530296
-10.5529172250374
-10.5980327775131
-10.6236746388792
-10.642275354889
-10.6530369027491
-10.6801854792461
-10.684518346798
-10.694121495749
-10.696696455279
-10.6922277106897
-10.6856891840272
-10.6723447854231
-10.6468349391273
-10.6433672554935
-10.6181521641266
-10.5705348408308
-10.540870528345
-10.5226925876611
-10.4652398454786
-10.4459182491463
-10.3712037032368
-10.3214963446829
-10.2970846065336
-10.2299444372559
-10.1543726590321
-10.130402819131
-10.0575078818585
-9.98446252689966
-9.91568105167994
-9.84358331874998
-9.77758239811528
-9.71562262991843
-9.63544262722931
-9.5671230875701
-9.54480856860064
-9.43729655411227
-9.42032617051971
-9.31461053611979
-9.29757490090819
-9.24091558005811
-9.16766597276027
-9.12003699527749
-9.06303061930443
-9.02929081838131
-8.99834733340603
-8.94310291637357
-8.91946234738963
-8.91547605228736
-8.8868697796844
-8.87478013238414
-8.86399776073925
-8.86198179660506
-8.84780352601546
-8.83936504469795
-8.83178649098506
-8.82446839014974
-8.81890110098452
-8.80790570048841
-8.79561821161469
-8.78284377539418
-8.77736018396394
-8.76343050492811
-8.75715305026605
-8.75433032320017
-8.75125208878699
-8.74837693126269
-8.74591327653446
-8.74427579811301
-8.73627336912923
-8.72569823911813
-8.72279784681906
-8.69667540903751
-8.68399508079561
-8.66091064751076
-8.63736549433769
-8.61208639988373
-8.58110883410916
-8.56597867594688
-8.52978019039486
-8.504053293084
-8.47816012235092
-8.47061117645925
-8.45769172263714
-8.43882258067582
-8.42858735314583
-8.41589134174596
-8.40381055097846
