-10.5063594015084
-10.4620348485035
-10.4177881020285
-10.3737170858709
-10.3299197238183
-10.2863941146537
-10.2431686116744
-10.2002715681772
-10.1577716065286
-10.1158738480166
-10.0747834139292
-10.0345487792621
-9.99512312529015
-9.95645963328822
-9.91860200237496
-9.88148742258735
-9.84505308396234
-9.80928609266581
-9.77415831050938
-9.73964159930472
-9.70565707714796
-9.67229511555525
-9.63964608604276
-9.60781679987088
-9.57690120084567
-9.54699323277324
-9.51826667639964
-9.49084054870928
-9.46483386668658
-9.4403997857885
-9.41755408912869
-9.3963125598208
-9.37668906237402
-9.35874630866957
-9.34254701058863
-9.32812544254698
-9.31548604125985
-9.30463324344249
-9.29548038215806
-9.28795558800759
-9.28198699159205
-9.27742043188304
-9.27406730655258
-9.27173901327269
-9.27022385605005
-9.26927123124071
-9.26863053520069
-9.26814998872445
-9.26759395757969
-9.26672680753411
-9.26547989515751
-9.26385881967934
-9.26186918032904
-9.25950230934506
-9.25672939020687
-9.25352160639388
-9.24985112761605
-9.24575218000297
-9.24125898968427
-9.23641374178056
-9.23128968656298
-9.22596007430266
-9.22041257833642
-9.21447660619735
-9.20798156541856
-9.20073383320284
-9.1926902081747
-9.18380748895868
-9.17411277366888
-9.16359933944498
-9.15226046342663
-9.14013614278654
-9.12717368647423
-9.11332040343925
-9.09859763694679
-9.0831439852419
-9.06709804656961
-9.0507416799757
-9.03436974355362
-9.0182770953968
-9.00268925316152
-8.98785269729929
-8.97401390826161
-8.96131333041514
-8.94967775223109
-8.93903396218072
-8.92935781039762
-8.9206626978673
-8.91296202557528
-8.90625135357216
-8.90059324630727
-8.89605026822996
-8.89256856872722
-8.89018057117267
-8.88891869893991
-8.88868752422396
-8.88936709413493
-8.89083745578291
-8.89294884377328
-8.89548293448864
-8.89822140431159
-8.90093342607801
-8.90351568305358
-8.90586485850397
-8.9078654364107
-8.90937600136237
-8.91025513794759
-8.91048683095489
-8.91019587441589
-8.90950706236222
-8.90861739253178
-8.90762442290935
-8.90662571147971
-8.90567066570651
-8.90473418961782
-8.90379118724171
-8.90282696924676
-8.9017110618422
-8.90031299123726
-8.89856335858807
-8.89623038175121
-8.89308227858324
-8.88894580192165
-8.88383729448999
-8.8777730990118
-8.87071926999591
-8.86265513844619
-8.85356003536651
-8.8434084378038
-8.83191282590324
-8.81878567981002
-8.80373892682801
-8.78646048952712
-8.76663829047723
-8.74406193372377
-8.71848012884761
-8.68964158542965
-8.65726634024433
-8.62116452548682
-8.5811462733523
-8.53706992825965
-8.48895156081411
-8.43680724162091
-8.38064916820722
-8.32040858973817
-8.25601675537884
-8.18751290236486
-8.11497472964407
-8.03847993616432
-7.95819052193697
-7.87434192687658
-7.7871695908977
-7.69697852056854
-7.60418966397778
-7.50922396921408
-7.41255553498291
-7.31477025079129
-7.21645400614622
-7.11814113484217
-7.02040775752329
-6.92382999483376
-6.82892752012984
-6.73612847711808
-6.64586100950501
-6.55852226342332
-6.47430806730522
-6.39341424958291
-6.31593912208525
-6.2419891294286
-6.17167071622932
-6.10512169869731
-6.04236540345664
-5.98342515713138
-5.92843481567546
-5.87747637278492
-5.83063182215582
-5.78782887091557
-5.74885849345047
-5.71351166414682
-5.68159157326625
-5.65290777023719
-5.62726980448805
-5.60450447110875
-5.58430699579896
-5.56637260425839
-5.55040535713691
-5.53608168040423
-5.52307800003001
-5.51122554419993
-5.50034782759963
-5.49026836491478
-5.48104499643965
-5.47280454810028
-5.46567384582269
-5.45953768980552
-5.4543974945051
-5.45025467437778
-5.44729764920517
-5.44576720413517
-5.44590412431568
-5.44802857518438
-5.45239658167277
-5.45926416871231
-5.46879297985542
-5.48085176739605
-5.49530928362818
-5.51178734355741
-5.53001079102516
-5.54970446987285
-5.57066402890236
-5.59281376339208
-5.61607796862039
-5.64028209132752
-5.66527170045526
-5.69089236494539
-5.7168903203547
-5.74300984722169
-5.7689952260849
-5.7946454345905
-5.81983650797334
-5.84444448146828
-5.86825533188479
-5.89099681060825
-5.91239666902406
-5.93227148487707
-5.95024366867871
-5.96593563094038
-5.97899691319007
-5.98935152867419
-5.99692349063918
-6.00173862880505
-6.00383756176725
-6.00326090812127
-6.00011599323449
-5.9946710913789
-5.98719447682648
-5.97792421039464
-5.96696641897696
-5.95442722946701
-5.94049108988741
-5.92520632079933
-5.90862124276394
-5.89078162957634
-5.87163319676955
-5.85112165987653
-5.82920132022045
-5.80588239304147
-5.78117509357972
-5.75501235835572
-5.72732710823529
-5.69805226408424
-5.66692274946299
-5.63370631136876
-5.59817069679876
-5.56024441143463
-5.51988691407317
-5.4770576635112
-5.43159486499981
-5.38349494825694
-5.33275434300052
-5.27945129045107
-5.22383070476197
-5.16613750008659
-5.10657739034306
-5.04541960197453
-4.98293336142414
-4.91941792295493
-4.85509474011188
-4.79018526643996
-4.72500774009713
-4.65997001627807
-4.59547995017741
-4.53180863983898
-4.46909249175912
-4.40746791243413
-4.34710716958575
-4.28808818254009
-4.23048887062325
-4.17449970885221
-4.12021555855044
-4.06773128104137
-4.01707107937055
-3.96799217096944
-3.92025177326951
-3.8736021404437
-3.82789697902625
-3.78298999555144
-3.73876626855458
-3.6951557488212
-3.65208838713683
-3.60954287784956
-3.56756098418811
-3.52618446938121
-3.48567221435839
-3.44630434332569
-3.40836098048916
-3.37219490243768
-3.33802769526112
-3.30608094504931
-3.27656571965735
-3.24978376869309
-3.22603684176434
-3.20546144374051
-3.18813549924891
-3.17413693291685
-3.16336502869668
-3.15565291664411
-3.15083372681486
-3.14875526771879
-3.14924073292944
-3.15211331602036
-3.15710437652842
-3.16405520087471
-3.17280707548033
-3.18331853895631
-3.19529608955992
-3.20844622554843
-3.22230952792463
-3.23641036148003
-3.25027309100613
-3.26331609552637
-3.27488850010965
-3.28433942982483
-3.29110822821581
-3.29466647945498
-3.29448576771474
-3.29004870259349
-3.28072710470128
-3.26589279464813
-3.24497960118885
-3.21745444508849
-3.18278424711213
-3.14041591520257
-3.08968122219027
-3.02991194090569
-2.96036830941815
-2.88036307064997
-2.78920896752344
-2.68632334115733
-2.57112049787203
-2.44301474398793
-2.30156999700053
-2.14655914361814
-1.97775507054903
-1.79496407364435
-1.59805338855168
-1.38689025091862
-1.16157485182332
-0.922497170481411
-0.670047186108514
-0.404669354761724
-0.126835018588832
0.162984480262372
0.464289336195027
0.776318914388259
1.09831258002119
1.42922986017724
1.76789079161079
2.11311541107627
2.46354740528848
2.81784311049171
3.17465886293022
3.53271720744276
3.89071063932492
4.24733165387231
4.60134826129856
4.9514567624346
5.29635345811139
5.63493257867172
5.96634356928553
6.28973587512271
6.60451447867471
6.91046162913922
7.20735957571392
7.49519475851506
7.77406989013008
8.04408768314643
8.30560413315706
8.55925259387076
8.80566641899633
9.04566304461287
9.28017951447854
9.5101528723515
9.7366079255142
9.96037272970547
10.1822753406642
10.4030600500426
10.6231704720762
10.8430502210002
11.0629406383263
11.2827759825552
11.5024905121877
11.7220263559252
11.9413257454437
12.1603309124192
12.3790039597403
12.59726642175
12.8150398327915
13.0323325213866
13.2492103045657
13.4657389993592
13.6822916787821
13.8996617598996
14.1186426597767
14.3399962088908
14.5643541375859
14.7923481762061
15.0245011223887
15.2613117538622
15.503278848355
15.750839339508
16.0043497350195
16.2641665425878
16.5303451076746
16.8026773739143
17.0809552849415
17.364723055022
17.6533521656573
17.9462140983488
18.2424616859899
18.541068420769
18.8410077948742
19.141220862573
19.4406623552428
19.7382870042612
20.033012658888
20.3235814650328
20.6087355686051
20.8870695119413
21.1571482275994
21.4175366481371
21.667024187701
21.9044233696052
22.1285467171639
22.3383131515227
22.5328423369912
22.7112539378794
22.8731102608801
23.0181491564893
23.146108475203
23.2569312250595
23.3507913876731
23.4278629446583
23.4884311645601
23.5330140557763
23.5621296267048
23.5764588790404
23.5769714589971
23.5646370127884
23.540460968555
23.5056262260872
23.4613156851749
23.4087525342971
23.3491927271483
23.2838922174231
23.2140605146798
23.1408294163658
23.0653307199283
22.9887307568441
22.9121510535536
22.8367131364975
22.7634754775636
22.693277950483
22.6269604289867
22.5651797504083
22.5085301860598
22.4576060072532
22.4127660052914
22.3743240041766
22.3425938279114
22.3175980797979
22.2990615134468
22.286708882469
22.2799171288996
22.2778264803295
22.2795771643497
22.2840170502272
22.2896192313708
22.2948568011891
22.2976895381293
22.2957041287986
22.2864872598042
22.2674301085465
22.2359285885635
22.1893786133927
22.1255784261425
22.0429948089903
21.9400945441138
21.8171432664502
21.6759399132092
21.5182834216009
21.3461950048395
21.1617403099683
20.9669849840304
20.7639165240535
20.5545785978161
20.3410148730969
20.1252980122443
19.9094023393634
19.6953021785591
19.4847948203195
19.2792683140237
19.0801107090507
18.8885217913639
18.7054375128913
18.5317938255608
18.3681754359247
18.2150680788441
18.0729574891799
17.9422635413893
17.8231088960548
17.7156162137592
17.6198100486402
17.5355455980249
17.4626780592406
17.4008012713344
17.3492439834506
17.3073349447336
17.2739603296784
17.2479547205327
17.2281526995446
17.2131203727258
17.2012430489531
17.1909060371032
17.1803958089006
17.1676865012678
17.1507522511272
17.1276306095761
17.0965284080996
17.0556524781824
17.003571991889
16.9392516596598
16.8616561919355
16.7700323170736
16.664025980622
16.5432831281288
16.4078217568427
16.2581730503565
16.0948681922625
15.9186564900008
15.7305103486017
15.5314021730958
15.322414714996
15.1046813862066
14.879335598632
14.6475444271072
14.4102850711873
14.1685347304274
13.9231375736291
13.6749859043573
13.4249720261771
13.1739310158583
12.9225782125693
12.6716289554787
12.4218660113443
12.1739521579763
11.9285501731846
11.6862352761716
11.4476389231307
11.2133925702556
10.9840552628435
10.7603308075633
10.5429230110841
10.3326759130341
10.1304223193915
9.93699503613411
9.75314786427396
9.57962713407121
9.41717917578605
9.26621729622195
9.12700276297359
8.99979684363566
8.8847840423147
8.78204544637507
8.69166214318111
8.61364585667484
8.54786618664112
8.49419273286482
8.45247947437148
8.42250783619995
8.40405924338913
8.39700239008609
8.40111067672571
8.41615750374291
8.44190275598875
8.4781811850391
8.52482754246984
8.58164673619761
8.64844768316192
8.72503930030228
8.81133896667404
8.90723173961756
9.01260267647316
9.12728850749421
9.25091153945026
9.38309407911085
9.52335997206855
9.67124320416198
9.82627776122975
9.98797460915028
10.1555290203639
10.328136267311
10.5049188254808
10.6848536385493
10.8669176501925
11.0499726937544
11.2327138932965
11.4138363728804
11.5918942195228
11.7652982333719
11.932459214576
12.0916914567215
12.2412398189344
12.3793491603402
12.504178512074
12.6139559318124
12.7069094772323
12.781560321214
12.8367590971637
12.8713564384878
12.8845385701379
12.8759106592433
12.8450778729338
12.7919986123059
12.7170264885625
12.6205151129066
12.5030797982167
12.3654496616157
12.2083538202264
12.0329959051887
11.8408118314514
11.6332375139632
11.4118285400814
11.1780700642875
10.9334472410631
10.6794969993864
10.4177602753737
10.1497780051413
9.87699387679161
9.60084162137686
9.32275496994928
9.04398096358002
8.76563913134171
8.48884900230702
8.214497270742
7.94334365361262
7.67614786788483
7.41350842064189
7.15582974247368
6.90351626397006
6.65680817168377
6.41577404480435
6.18048246252132
5.95099647842199
5.72727644742052
5.50928272443109
5.29691397929547
5.09011708721926
4.88883892340801
4.69287755491295
4.50187229143911
4.31546244269154
4.1333720493607
3.95533240211495
3.7810747916226
3.61026369048188
3.44267407815144
3.27808093408992
3.11632114775207
2.95737706859591
2.80123104607949
2.64793461290739
2.49757453928193
2.35023759540541
2.20600078440315
2.06498961122072
1.92732958080368
1.79329825251705
1.66296307419677
1.53639149367881
1.41359604944542
1.29451696250416
1.1790944538626
1.06707362558018
0.958282157143644
0.85254772803974
0.749780649547355
0.650047766708979
0.553415924567098
0.459891613725864
0.369522869543202
0.282357727377035
0.19837410569181
0.117447817915604
0.0394546774764963
-0.035608844888332
-0.107801238475572
-0.177180992581916
-0.243743606642132
-0.307549594091358
-0.368659468364734
-0.427072952967694
-0.482714571032255
-0.535508845690432
-0.585433455045692
-0.632460350359215
-0.676561482892182
-0.717690283388256
-0.755710209616955
-0.790484719347796
-0.822033232039817
-0.850541843416084
-0.876196649199667
-0.899080548471462
-0.919206198679907
-0.936586257273439
-0.951197475740559
-0.963071833006906
-0.97224130799812
-0.978598036098189
-0.982038616075703
-0.982459646699249
-0.979678055256616
-0.973456959503252
-0.963559477194609
-0.949759129938164
-0.931848000067532
-0.90961816991633
-0.882911333818168
-0.851782279248163
-0.816285793681431
-0.776616132679127
-0.73306800161272
-0.685936105853679
-0.635490580923392
-0.581967966087957
-0.525604800613468
-0.466578590917718
-0.405115470928469
-0.34144157457348
-0.275794433106965
-0.208459738904411
-0.139723184341303
-0.0698798448061813
0.000784886871632082
0.0719856178628138
0.143477981493697
0.214955437059723
0.286111443856331
0.356563328707109
0.426071071463451
0.494394651976753
0.561189737094836
0.626147727532923
0.688960024006239
0.74922010449363
0.806376811822742
0.859878988821225
0.909089563826134
0.953324862025086
0.991901208605695
1.02400234696248
1.04880206027952
1.0654741317409
1.0731367973277
1.07102188241439
1.05836121237548
1.0344387799913
0.998635884381623
0.95033382466618
0.8891170774205
0.814919043078876
0.7276731220756
0.627361593992811
0.514088821956546
0.387959169092841
0.249371448736634
0.0989766953144106
-0.0625740567473462
-0.234546248706918
-0.416120701319748
-0.606478235341282
-0.804808570591897
-1.01028628583021
-1.22208595981482
-1.43942215004006
-1.66134892130225
-1.88692033839773
-2.11540898657676
-2.34606324292269
-2.57813148451886
-2.81073120098648
-3.04288955702252
-3.27363371732394
-3.50225151230987
-3.72813977596356
-3.95069534226827
-4.16940108231844
-4.38373713084141
-4.59318362256454
-4.79740410435861
-4.99612402711331
-5.18906884171831
-5.37598574651192
-5.55682709764038
-5.73154525124992
-5.90010139188188
-6.06245583071506
-6.21856887892824
-6.36832939540867
-6.51166568289968
-6.64850604414457
-6.7789462799525
-6.90306490118045
-7.02094041868536
-7.13273155252914
-7.23872080740276
-7.33919068799719
-7.43423983531303
-7.52403664656646
-7.60874951897368
-7.68855141701856
-7.76355103730901
-7.83385707645294
-7.8996507184564
-7.96093636352161
-8.01771841185079
-8.070039129628
-8.11809403261669
-8.16207863658031
-8.20229024658068
-8.2390813341478
-8.27280437081167
-8.30372336353557
-8.33201271036425
-8.35784680934246
-8.38153823137943
-8.40342474979392
-8.42384413790469
-8.44303250744301
-8.46112783353325
-8.4782680912998
-8.49456033607536
-8.51009533333807
-8.52496384856607
-8.53931301937083
-8.55314902942139
-8.56647806238678
-8.57936910018457
-8.59197149082921
-8.60443458233515
-8.61684609349231
-8.62928687266146
-8.64183776820342
-8.65458047173533
-8.66766211643595
-8.68122983548403
-8.69532073585248
-8.70994860697247
-8.72512723827513
-8.74069654041127
-8.75660801716978
-8.77281317233955
-8.78938476280862
-8.8065316143064
-8.82446255256234
-8.84324049782513
-8.86285136036588
-8.88328105045565
-8.90460553979753
-8.92677998924203
-8.94975955963971
-8.97347004604164
-8.99786645977088
-9.02290381215055
-9.04845366773072
-9.07445775987088
-9.10085782193051
-9.12761665018108
-9.15478846450296
-9.18242748477654
-9.21077951995895
-9.24009955983313
-9.27064259418198
-9.30248548151042
-9.33559361619366
-9.36993239260689
-9.40540869304451
-9.4418501876813
-9.47908454669199
-9.51676920784199
-9.55447753851931
-9.591782906112
-9.62830957063115
-9.66379430494258
-9.69797388191206
-9.73062591819015
-9.76155269123331
-9.79055647849799
-9.81754031830611
-9.84259062565564
-9.86579381554459
-9.88716501523963
-9.9067348793167
-9.92453406235171
-9.94067623217661
-9.95524025207023
-9.96830498531142
-9.9801524176664
-9.99120910815213
-10.0019016157856
-10.0125306357283
-10.023294292911
-10.0343907122645
-10.045972158155
-10.0582794479128
-10.0715533988686
-10.0859266684804
-10.1014959691364
-10.1183580132248
-10.1365096673353
-10.1557633856068
-10.1759316221786
-10.1967787497703
-10.2180807100206
-10.2396134445682
-10.2611824715162
-10.2826344457957
-10.3038160223375
-10.3246800673502
-10.3450797644915
-10.3648682974188
-10.3839120468013
-10.4020524391937
-10.4191309011502
-10.4349380235033
-10.4492592265405
-10.4618799305492
-10.4726244523553
-10.4813463167886
-10.4878990486784
-10.4922052820386
-10.4941349686804
-10.4935580604152
-10.4904128603057
-10.4847151130119
-10.4764805631935
-10.4656703256549
-10.4522858281719
-10.4363284985208
-10.417819932686
-10.3968629612273
-10.3735604147045
-10.348050729529
-10.320426579992
-10.2907806403841
-10.2591798928675
-10.2257157115718
-10.1904794706271
-10.1536294128776
-10.1152063191441
-10.0752509702474
-10.0338147791923
-9.99106840843515
-9.94718252043221
-9.90227485701938
-9.85648666440652
-9.8099591888035
-9.76292576908698
-9.71556137112416
-9.66804096078225
-9.62057752685991
-9.57340641860774
-9.52676298527636
-9.48085731319543
-9.43590013484537
-9.39210218270658
-9.34962683210272
-9.30860567869833
-9.26917031815794
-9.23139770466217
-9.19537141432568
-9.16117502326318
-9.12880183531864
-9.09818269253486
-9.06924843695467
-9.04180825998623
-9.01563901851589
-8.99051756942996
-8.96633395566385
-8.9429044103745
-8.92004516671883
-8.89772121513325
-8.87596131129582
-8.85479421088461
-8.83431463651211
-8.81455331138026
-8.79554095869103
-8.77736510083077
-8.76006748123794
-8.74368984335097
-8.72805311683427
-8.71294345086004
-8.69814699460052
-8.68336340085538
-8.66832660192457
-8.65277053010806
-8.63653295537569
-8.61960122017079
-8.60196266693672
-8.58365472340579
-8.56484361817699
-8.5456955798493
-8.52647150334077
-8.50742779439048
-8.48882085873749
-8.47080792243114
-8.45343435482785
-8.43674552528403
-8.42071255768834
-8.40521103650319
-8.39011654619096
-8.37529169571222
-8.36060166515023
