-10.4278322098556
-10.3763119909126
-10.3292719108905
-10.2866613681219
-10.2483120175389
-10.2139066564862
-10.183043582752
-10.1553005727988
-10.1302964281092
-10.1077178584934
-10.0872076179253
-10.0682239099231
-10.0500292046838
-10.0317732766112
-10.0125394565394
-9.9913707271614
-9.96735001183451
-9.9396809272538
-9.9077241141615
-9.87103660794736
-9.8294174514877
-9.78300600123908
-9.73221754966231
-9.67768566920087
-9.62019461274221
-9.56061218651983
-9.4998676276989
-9.43891618833036
-9.37873611018387
-9.32032066646103
-9.26463346881791
-9.21261383667024
-9.16519164037401
-9.12330044934531
-9.08783264787217
-9.05960981389259
-9.03935575472162
-9.02767787271409
-9.02497240841806
-9.03138098391829
-9.04673582015849
-9.07051366945533
-9.10185921091178
-9.13961323428698
-9.18236715696007
-9.22852960683577
-9.27642530661157
-9.3243896979395
-9.37085013626683
-9.4144706928724
-9.4542572833877
-9.48954965641087
-9.51994833545668
-9.54526467776722
-9.5654964846554
-9.5808089250206
-9.59151134377719
-9.59803591491143
-9.60087060248458
-9.60049242168635
-9.59730240989887
-9.59155985018156
-9.58336078162696
-9.57262841815817
-9.55915023917438
-9.54261447970876
-9.52268755850722
-9.4990404602649
-9.47136332936518
-9.43932985517055
-9.40261123993649
-9.36093826373066
-9.314158940033
-9.26233187669255
-9.20580625214736
-9.14528804847267
-9.08186638035674
-9.01699041923604
-8.95230616383277
-8.88948125958036
-8.83011708276402
-8.77568049268842
-8.72740818125824
-8.68624917965596
-8.65284580871336
-8.62751509454207
-8.6103126438731
-8.60107345221376
-8.59941508668611
-8.60478929342263
-8.61653546643443
-8.63388593228034
-8.65594401308821
-8.68176078590539
-8.71031245984587
-8.74047698271866
-8.77104308803399
-8.8007211876618
-8.82818412508937
-8.85211703702404
-8.87131339646808
-8.88473886933928
-8.89160550634341
-8.89135982910055
-8.88368756142197
-8.86852982778309
-8.84612452593796
-8.81701420942566
-8.7820006024357
-8.74207087618428
-8.69835042160094
-8.65203539230453
-8.60435136208921
-8.5565093832617
-8.50969741604824
-8.46509192230639
-8.42380818738052
-8.3868228733629
-8.35499042185082
-8.32909329518855
-8.30985665075432
-8.29809758347138
-8.29479286958386
-8.30107469340247
-8.31808190885899
-8.34681058915697
-8.38798572650708
-8.44191661541523
-8.50836318951399
-8.58638354241635
-8.67442286330026
-8.77046236742001
-8.87215760451048
-8.97699302705154
-9.08235424215079
-9.18555015472459
-9.28386111374665
-9.37457829731055
-9.45509512400009
-9.52296415665555
-9.5759512406651
-9.61208932250914
-9.62962163301234
-9.62691839826621
-9.60244547622961
-9.55481109254972
-9.48285352550273
-9.38570109984306
-9.26284547949972
-9.11421547011131
-8.94023005681584
-8.74184911114464
-8.52062578339963
-8.27874656138326
-8.01900312158417
-7.74475802731712
-7.45989983820601
-7.16874987146488
-6.87584110858032
-6.58575393508324
-6.30294687025834
-6.0316279105897
-5.77566058780306
-5.53851464869561
-5.32312876365406
-5.13176529869506
-4.96601103788821
-4.82682588559785
-4.71461848150174
-4.62926258976222
-4.57018967469178
-4.53647466278868
-4.52694553085242
-4.54029647386797
-4.57501524902323
-4.62929170047343
-4.70099734096893
-4.78767420898944
-4.88660039161332
-4.99487601983504
-5.10949567818075
-5.22739465697363
-5.34549308925023
-5.46070908057644
-5.57006183527293
-5.67076924638736
-5.76033047082063
-5.83662781561583
-5.89800832365633
-5.94332240121751
-5.97198583650919
-5.98399824343992
-5.97989746859616
-5.96068568490027
-5.92788137278061
-5.883575206848
-5.83040220160977
-5.77150963284349
-5.71035941253108
-5.6505173961097
-5.59542237233675
-5.54809473874701
-5.51091954827954
-5.48544090197727
-5.47222972973634
-5.47100055708498
-5.48077799310757
-5.50028306190822
-5.52824930955085
-5.56353924887775
-5.60518851298128
-5.65235236744252
-5.70422670410739
-5.76006416155626
-5.81917193709196
-5.88090842511902
-5.94473844962378
-6.01028873199833
-6.07722704003562
-6.14510242414801
-6.21312696541717
-6.28007303220703
-6.34427685849787
-6.40369875563492
-6.45601601251759
-6.49866582634729
-6.52910696571317
-6.54510669091479
-6.54502786427793
-6.52797964677295
-6.49385914161778
-6.44335386526528
-6.37794423071231
-6.29985977118516
-6.21199063286831
-6.11767356975198
-6.02040898985748
-5.92358850775405
-5.83036095495418
-5.74351251803868
-5.66531471346258
-5.59748900222348
-5.54125823475567
-5.49738854090825
-5.46624663798112
-5.44784839844159
-5.4418801196181
-5.447687073421
-5.46424865743474
-5.49020322738534
-5.52385627086156
-5.56320345272704
-5.60603701834394
-5.65003532344605
-5.69279484083439
-5.73182096541905
-5.76451172260434
-5.78821525011492
-5.80041913007006
-5.79892459793341
-5.78204639227405
-5.74876056214629
-5.69870891004953
-5.63220465339678
-5.55025454910024
-5.45454541426232
-5.34733346164924
-5.23132934241113
-5.10966182674658
-4.98579130287578
-4.86334530313068
-4.74590513687984
-4.63671686771381
-4.53852126773154
-4.45352598463348
-4.38337706657971
-4.32910252622306
-4.2910608671723
-4.26892656640878
-4.2616554825478
-4.2674573140899
-4.28374146740822
-4.30714065501001
-4.33375686438758
-4.35943032855779
-4.38002486471414
-4.391632435772
-4.39077685538947
-4.37461636533576
-4.341144417916
-4.28923002713884
-4.21864919497795
-4.13009678752852
-4.02518982981962
-3.90628623733635
-3.77630930092018
-3.63853140935106
-3.49633025360602
-3.35309461903281
-3.2121226565428
-3.07653800994906
-2.94919905630252
-2.83251220861094
-2.72831287952693
-2.63777422925173
-2.56136952129315
-2.49899012776746
-2.45009229797732
-2.41383371393339
-2.38919459656039
-2.3750883897682
-2.37049140966368
-2.37459050400041
-2.38689416875413
-2.40716944521872
-2.43526419503966
-2.47101028387442
-2.51412132180245
-2.56421831939499
-2.62084273455267
-2.68347956378248
-2.75161915452312
-2.82485679990708
-2.90299139270796
-2.98603792615057
-3.07419886594697
-3.16777844615206
-3.26708409361414
-3.37236782226667
-3.48376500484092
-3.60117045428333
-3.72410458094721
-3.85154206048411
-3.98176180399972
-4.11233912933871
-4.24025773624713
-4.36202275707995
-4.47377483612276
-4.57135304030022
-4.65034217133389
-4.7061873291625
-4.73429676943617
-4.73009911091928
-4.6890653332381
-4.60674885566873
-4.47889931534057
-4.30165097115658
-4.07172630990473
-3.78655862747667
-3.44431851751441
-3.0439384819224
-2.58515027594831
-2.06858034233491
-1.49586585511973
-0.869865215748455
-0.1947289729772
0.524089867316856
1.27985706380467
2.06465319962588
2.86957503616466
3.68498992818021
4.50077860585995
5.30648825577441
6.09148053540015
6.84517350859354
7.55729175511778
8.21815100374669
8.81903602944314
9.35257834626802
9.8131004687982
10.196881092846
10.5024019723936
10.730537178314
10.8846210417989
10.9701827913841
10.9946708433808
10.9671890077781
10.8982400793291
10.7993771756805
10.6828269516496
10.5610170596364
10.4460777875689
10.3493179471956
10.2806930905127
10.2482662174382
10.2578412147776
10.3127612505947
10.4137832561987
10.5591989432475
10.7450001165034
10.9652357899518
11.2123933415136
11.4778253113448
11.7521530011347
12.0256554655711
12.2887023396888
12.5321575621691
12.7478029779803
12.9288224826344
13.0702561638282
13.1694132109825
13.2261951741231
13.2431030190685
13.2250468281938
13.17888424305
13.1129584756352
13.0367217400076
12.9603679664034
12.8944941704177
12.8497014760012
12.8362457773556
12.8636375680473
12.9401998571554
13.0727943180854
13.266691564011
13.5255086537435
13.8511556472434
14.2438517706344
14.7021365416496
15.2230181916981
15.8021533621211
16.4340385177864
17.1122800690927
17.829777628373
18.578824160285
19.351107400473
20.137667612112
20.9289327259338
21.7149348976872
22.4855387373214
23.2307151578048
23.9407612379809
24.6064820131459
25.2194231820041
25.772079712185
26.2581162044527
26.6725651978508
27.0120208042156
27.2745759639984
27.4597725542145
27.5684019069717
27.602307681589
27.5641734463424
27.4573230258551
27.2855736050565
27.0530684355161
26.7642436914287
26.4238196228157
26.0367127970441
25.6079485717423
25.1426801281974
24.6461552339018
24.1236953852934
23.5806882253895
23.0226064381816
22.4551231528115
21.8842736509228
21.3166329758625
20.7593677460409
20.2201932324543
19.7072890550073
19.2292372577957
18.794888841051
18.4132810437379
18.093524897757
17.8446894288431
17.675537739516
17.5942654843364
17.6082410555208
17.723562969435
17.9445241553614
18.2731114181375
18.708542975306
19.2469056254365
19.8809384305175
20.599817016464
21.3890294404275
22.2302924135697
23.1017583116874
23.9784317090824
24.8328872074596
25.6362773794045
26.3597495799456
26.9758960326589
27.4603082551339
27.7930056059371
27.9596985003776
27.9528770402321
27.7719953770925
27.4233901566012
26.9189662995371
26.2748712717543
25.5101795816223
24.6457257708792
23.7032846305484
22.7049462457053
21.6725484935789
20.6271393576682
19.5885177656713
18.5748318781135
17.6021974323421
16.6843323202891
15.8325443838296
15.0559310783981
14.3615825110882
13.7547913637025
13.239337276856
12.8177768548733
12.4916936495628
12.2619152298611
12.1285262473198
12.0908883015394
12.1476886047281
12.2968970853275
12.5356116120531
12.8598804212657
13.2645244346458
13.7429706151502
14.2872042289905
14.8877973052068
15.5338446074923
16.2129742820202
16.9115089736368
17.6146668463779
18.3067970703716
18.9716948512431
19.59324998236
20.156024162736
20.645854360037
21.0504204710202
21.3597227666828
21.5664091518576
21.6659108871659
21.6565724164684
21.5397305342737
21.3197059903254
21.0036365047616
20.6012083170482
20.1241133697096
19.5854353454196
18.9990348442906
18.3789196100935
17.7386909537441
17.0910400421736
16.447272267748
15.8169900894098
15.2078415288223
14.6255222038973
14.073872024795
13.5550702084833
13.0698050079075
12.6175306364409
12.1967369695471
11.8052792776538
11.4406298830571
11.1000269931758
10.7806781833971
10.4799736128872
10.1957331027515
9.92636803162631
9.67104425416386
9.42984784835181
9.20374175023429
8.99440375168265
8.80389051063784
8.63426946607219
8.48739675783865
8.36470304551566
8.2669595670465
8.19403775522622
8.14494113144083
8.11787294231771
8.1103087613261
8.11908614836047
8.140553629871
8.17067165745714
8.20514655204175
8.23961740636475
8.26984695200961
8.29191120033464
8.30241986022792
8.29863232635361
8.27847986845837
8.24064694128705
8.18465146502914
8.11093172716639
8.02084964206741
7.91671380915372
7.80180546170884
7.68038146921615
7.55759136553715
7.43927660963253
7.33175395557632
7.24163346832187
7.17561146879815
7.14039378300723
7.14256652278044
7.18846607685062
7.28392682666348
7.43404092820116
7.6428293361094
7.91305665711795
8.24618260955742
8.64226332386086
9.09986677278197
9.61599800155173
10.1860373388512
10.8037518821315
11.4612731584601
12.1491329173964
12.85641170651
13.5709454269798
14.2795482654613
14.9683235175119
15.6230492117883
16.2296164861792
16.7744951338165
17.2452534387045
17.6309656791744
17.9224983548307
18.1127558827643
18.1968889718696
18.1723366120775
18.0388637535953
17.7985920859402
17.4559229066612
17.0173706262479
16.4913890415824
15.8882253743831
15.219696036526
14.498694178318
13.7386570924583
12.9531504105039
12.1554570710451
11.3583419917344
10.5738305614416
9.81298704134338
9.08570141146574
8.40056330795508
7.76475359005841
7.18393357620797
6.66213447527428
6.20174170339874
5.80349201804748
5.46656801350219
5.1887788320334
4.96673358452477
4.79604334794759
4.67153955456959
4.58749299334672
4.53776446318248
4.51597141833076
4.51565683880816
4.5304789897115
4.55431171600631
4.58135774157466
4.60629490370311
4.6244251507955
4.63172893847281
4.62490803827575
4.60146644555252
4.5598143156679
4.49906967661417
4.41885541087114
4.3191000018119
4.19998946160143
4.06200925331585
3.90595995263188
3.73303677363257
3.54488343304339
3.34353194841599
3.131330524981
2.91085605002427
2.68482171642773
2.45604355378638
2.22740704468052
2.00180827653258
1.7820941992068
1.57085894906098
1.3703542043394
1.18236418397141
1.00812908993638
0.84833256523895
0.703096841922212
0.572148741060172
0.454955405613038
0.35085521237463
0.25913116558147
0.178925242741531
0.109170464973027
0.048563775951477
-0.00446289407103676
-0.0517010656908735
-0.0950952826029051
-0.136584919845293
-0.177966005403566
-0.22081907471142
-0.266402015252012
-0.315609396709531
-0.368951286880385
-0.426505000846726
-0.48788333532186
-0.552266663010003
-0.618509110764691
-0.68526377025187
-0.751088451917474
-0.814561315810535
-0.874371253868762
-0.929423288823168
-0.979017814675589
-1.02289782028889
-1.06123696751065
-1.09448415440249
-1.12320259170781
-1.14802261071794
-1.1695987008163
-1.18856550642021
-1.20551905262264
-1.22095439401917
-1.23519840676411
-1.24835250762585
-1.26023781726954
-1.27044907096001
-1.27841223915342
-1.28348859576192
-1.2850635503911
-1.28264032448934
-1.27593180507941
-1.26496855931346
-1.2501942149408
-1.23236606331599
-1.2124886899551
-1.19167854810052
-1.17099030277634
-1.15131685597811
-1.13332811310353
-1.11741154235956
-1.10362349486602
-1.09172712561491
-1.08121323560708
-1.07129977651464
-1.06093944611743
-1.04881611120133
-1.03332819730221
-1.0125887318117
-0.98445232454102
-0.946599376344568
-0.896641289368166
-0.832220157287329
-0.751050678322286
-0.650941515617469
-0.529918766700937
-0.386354792782144
-0.219061987788243
-0.0274734969387284
0.188249181929403
0.427142377881875
0.687392873840126
0.966250269093401
1.25999668367133
1.56391864105417
1.87236482803109
2.17895176994277
2.47677434350914
2.7586227574203
3.01726352748293
3.24567742738401
3.43730047226078
3.58626896145985
3.68766743266899
3.73769245552263
3.73374642101211
3.67438205895097
3.55920760694699
3.38888904159531
3.16515616266143
2.89074185876461
2.56931605764116
2.20530631516597
1.80369432878671
1.36985056518919
0.909381017523937
0.427909956799198
-0.0690499614707519
-0.576214590159275
-1.08858089626053
-1.60139252607068
-2.11022499487634
-2.61100872737067
-3.09993677224982
-3.57340789020912
-4.02795588663101
-4.46033358844681
-4.86772090614843
-5.24786710954422
-5.59906835723675
-5.92014204337395
-6.21040017167312
-6.46963023876299
-6.6980858338935
-6.89642463015736
-7.06558489850682
-7.20670536286226
-7.32115330949233
-7.41063062038331
-7.47722895785406
-7.52325782933631
-7.55111282689986
-7.5631803186428
-7.56174929829641
-7.54906911997154
-7.52742440282727
-7.49914862272129
-7.46653212690198
-7.43179138457048
-7.3970111255567
-7.36405596966663
-7.33441299914721
-7.30916138110747
-7.28905324500324
-7.27456043700239
-7.26595118336694
-7.26335043739754
-7.26680147310778
-7.27627434514285
-7.29158610289629
-7.31246943565031
-7.33865715115195
-7.36993537184545
-7.40619213416206
-7.4474227980174
-7.4935990628692
-7.54452757931488
-7.59983748193874
-7.65901911261244
-7.72149281409069
-7.78664257591637
-7.85378698354818
-7.92209314737892
-7.99054194758281
-8.05794940870752
-8.12306024421494
-8.18460706926921
-8.24137604388019
-8.29227232271142
-8.33643958228638
-8.37330974009692
-8.40265438815946
-8.42465811451174
-8.43992294481026
-8.44938422664716
-8.45421468577187
-8.45575156207111
-8.45542311540465
-8.45469892692548
-8.45503450725369
-8.45776866183723
-8.46401226012243
-8.47463639954995
-8.49026541416871
-8.51126998046987
-8.53788075536061
-8.57017867790865
-8.60802754429238
-8.65098629094206
-8.69820521313712
-8.74846160093051
-8.80026864756341
-8.8519946877719
-8.90202554852031
-8.94883370916677
-8.99106361823122
-9.02763929818804
-9.05787845182809
-9.08157941755153
-9.09904355468053
-9.11117074622615
-9.1195174856568
-9.12625344984446
-9.13411416378382
-9.14630046140816
-9.16631021490059
-9.19757744121361
-9.24311090147707
-9.30515260099578
-9.38495632500615
-9.48267626197786
-9.59735571296547
-9.72693284709746
-9.86830564395623
-10.0174435646936
-10.169671791244
-10.3200305088412
-10.4634889057289
-10.5951390399598
-10.7103689985482
-10.8049829709381
-10.8753260899471
-10.9184352316582
-10.9322079469258
-10.9155290151344
-10.8682719068475
-10.7912172438532
-10.6859722349958
-10.5548946377978
-10.4010619433482
-10.2281965098041
-10.0406445016311
-9.84334404033754
-9.64166203258579
-9.4410900420299
-9.24697855479448
-9.06434124917013
-8.8977251032348
-8.75113332700291
-8.62794823481829
-8.53085139342674
-8.46175586678469
-8.42177510417954
-8.41115276850143
-8.42924484051662
-8.47450328394958
-8.54455876275347
-8.63644348832055
-8.74679747929061
-8.87202951207073
-9.00856953997945
-9.1530270470121
-9.30229382496564
-9.45364114082795
-9.60465421251926
-9.75320323253051
-9.89739469621978
-10.0355159797448
-10.1659742888574
-10.287331953708
-10.3983564941197
-10.4980683432038
-10.5857722495744
-10.661065435345
-10.7238212810616
-10.7741557320333
-10.812333581435
-10.8387261292908
-10.8538011118475
-10.8581017653108
-10.8521657063867
-10.8365524641803
-10.8118743072104
-10.7788183944331
-10.7381543478876
-10.6907396915082
-10.6375048134283
-10.5794059071064
-10.5173570004353
-10.4522202400664
-10.384783119201
-10.3157627735497
-10.2457939573033
-10.175418083842
-10.105072073232
-10.0350929740315
-9.96578088460037
-9.89745093137714
-9.8303800337215
-9.76480113529776
-9.70094567520492
-9.63907369799109
-9.57950498400165
-9.52257290289795
-9.46862809591081
-9.41801566700068
-9.37103103891021
-9.32786849757206
-9.28861168955007
-9.2532255066788
-9.22154467150312
-9.19326100069782
-9.16794889191252
-9.14510428178305
-9.12417214861814
-9.10458025876246
-9.08576008772372
-9.06715775622819
-9.04824838953083
-9.02855289450409
-9.00765318426443
-8.98525454128117
-8.96126503731252
-8.93587491701104
-8.90952127625603
-8.88286899536311
-8.85680053079696
-8.83235186021537
-8.81058280346307
-8.79249111296777
-8.77887081636757
-8.77017983969238
-8.76645133220099
-8.76717512139427
-8.77121202044631
-8.77674210632718
-8.7814341670818
-8.78264928691635
-8.77765487321476
-8.76390277521209
-8.73927734828233
-8.70232482103879
-8.65240609375373
-8.5897827898489
-8.5156413062271
-8.43206909298249
-8.34193747966521
-8.24874008108395
-8.15632989806338
-8.06865276291613
-7.98946854605496
-7.9221420164348
-7.86952455028294
-7.83389281046704
-7.81689065022698
-7.81948211345749
-7.84213747823128
-7.88501534378115
