-10.3523819280543
-10.321123174531
-10.2864832988879
-10.2807338324111
-10.2247035318658
-10.2078755255021
-10.1671127244833
-10.1367285370397
-10.1048158507616
-10.0925112393404
-10.0677557826086
-10.0401871330746
-9.98252943791085
-9.95848539885974
-9.92542700160075
-9.91563782855097
-9.86713219799031
-9.8350485337037
-9.81299525851081
-9.77300460019435
-9.74527126619669
-9.70105268261887
-9.66239817275021
-9.63818723565914
-9.60225145251592
-9.56828694175733
-9.5204089656241
-9.50922432796542
-9.45979557262033
-9.42459152494354
-9.40119385068448
-9.39073187087755
-9.35820612250462
-9.33674920956851
-9.31951416392832
-9.306507044124
-9.29466637107998
-9.28148647363264
-9.27186413994988
-9.2696451423167
-9.26947535045228
-9.27573132346495
-9.27961377146565
-9.28657706143246
-9.29532292285931
-9.30737053548207
-9.32236650872245
-9.34417989974897
-9.35495826732396
-9.36976348169056
-9.37944266523484
-9.38369870460494
-9.39227519054663
-9.3960261455683
-9.40457118655653
-9.40568806314985
-9.40720394991243
-9.4062748987093
-9.40383760082652
-9.4014375871506
-9.39476271432912
-9.38789275319535
-9.37824247910224
-9.37379755507377
-9.3634765351836
-9.34968726237344
-9.34436562071307
-9.32986981062344
-9.30818739993174
-9.29179859226175
-9.2595007732359
-9.24416104826309
-9.217439793362
-9.20162519392744
-9.15669562716478
-9.14130269146529
-9.09423803189325
-9.06209673870532
-9.03138817241157
-8.99143392220368
-8.95376724836189
-8.92459092280496
-8.90198359217859
-8.87482815701974
-8.85129408315246
-8.83079093777822
-8.81742132663464
-8.79550037598086
-8.78056465114931
-8.77106413860779
-8.74931796271162
-8.74567087377635
-8.73444825525347
-8.72211151878587
-8.7171839479216
-8.71557439848625
-8.71233526262516
-8.70970413235609
-8.70745561963135
-8.70541615096547
-8.7039695935993
-8.69910687340371
-8.69740001320323
-8.69361506993351
-8.68940378026248
-8.6828752257514
-8.6773937366122
-8.66935603693744
-8.66183142724323
-8.66085336316152
-8.65151794433828
-8.65038485805437
-8.64385255731279
-8.6432011137308
-8.64272125802251
-8.64294297733563
-8.64594158285587
-8.64944278202129
-8.66236824739318
-8.66614952969438
-8.67886623131625
-8.68680437827634
-8.70862637218516
-8.71683356883489
-8.74309953871362
-8.74847360535338
-8.77585025709018
-8.789540249271
-8.8150669995809
-8.85388936453856
-8.88905688721568
-8.90905230375656
-8.93741121498297
-8.94992283592074
-8.96680744556066
-8.98087474661284
-8.9849936309748
-8.98606300592946
-8.98298321133259
-8.96778109614132
-8.93077191796934
-8.90454730030577
-8.8853401396899
-8.83743060719079
-8.78229038578078
-8.66555012919986
-8.62649545199731
-8.55670129487515
-8.37557584656194
-8.34266430960278
-8.13414936755236
-8.03110632160702
-7.90170678207186
-7.8133241943402
-7.66199915589411
-7.44186154995636
-7.21011201552518
-7.17239687976204
-6.90203246427505
-6.82846115695644
-6.5687290289145
-6.44855579540921
-6.28663763425599
-6.08962405417954
-6.06801393906754
-5.83217440480631
-5.77100164083638
-5.68756700330088
-5.53725843575862
-5.48480057919467
-5.39526257248668
-5.32790284630044
-5.25432188234997
-5.217403342796
-5.20228515341721
-5.15907607548674
-5.14887135756191
-5.14251716613887
-5.14304409584855
-5.15865267014842
-5.16703740628619
-5.19215089212849
-5.19769806920969
-5.22736025849554
-5.27041708825691
-5.29265894468314
-5.32571668712474
-5.34735438346038
-5.37967608203563
-5.40396020469311
-5.4526092617973
-5.46121418712475
-5.49854114205159
-5.51446522762908
-5.52619449878645
-5.53883674270962
-5.54935968727506
-5.555758480951
-5.56499082299119
-5.57435197439326
-5.58428323257382
-5.59712936572384
-5.61934264096935
-5.63116835235212
-5.65895834311627
-5.69690154821554
-5.69933051049524
-5.7381103272629
-5.77264085847926
-5.80791260384614
-5.82369707891383
-5.8534727186875
-5.87869479066027
-5.90654041110987
-5.93612135597824
-5.96529525544498
-5.9915033040404
-6.02639248859212
-6.04537422329925
-6.0741648497342
-6.08852804294407
-6.10936424523766
-6.12820455122559
-6.16212641282064
-6.16504312785967
-6.18778077345911
-6.19926792518494
-6.21112181031128
-6.20826370082518
-6.20506519342697
-6.18579547671621
-6.17790336079776
-6.14283252640076
-6.12925469375518
-6.11143821658161
-6.05837673677233
-6.04253622595858
-5.99084135575121
-5.96282191797184
-5.94596748918489
-5.91631220852602
-5.87184618950664
-5.85222849731625
-5.83167170584417
-5.80497556089408
-5.7849958172863
-5.76402848313117
-5.74224979571914
-5.7300692684032
-5.70318784590089
-5.70223981160486
-5.683909420517
-5.67080977946862
-5.65423174928721
-5.64058682269131
-5.61730174192138
-5.60563734331644
-5.59016371229996
-5.55580964417643
-5.53966416983126
-5.49240674234746
-5.46432060757837
-5.41499669568053
-5.38221926799534
-5.34135605026037
-5.27577132241575
-5.2302831888302
-5.17776239610424
-5.08391726495697
-5.01301320328936
-4.946561504148
-4.91614306711964
-4.81538190320247
-4.77466617523021
-4.71314391490799
-4.63411385030031
-4.56474914349937
-4.52495012477939
-4.484507334189
-4.41706092886397
-4.400884720017
-4.33478551209649
-4.30805931022679
-4.27408346008331
-4.20892683980522
-4.15383180604203
-4.11300740453728
-4.05584565269968
-4.03144230367087
-3.99401864362414
-3.88189855783931
-3.84948881961552
-3.7507174566944
-3.69772602318832
-3.64611146880814
-3.52177740290966
-3.48123090680237
-3.42198287632125
-3.28862761661779
-3.26613835893024
-3.1609772152792
-3.14928500242589
-3.08727029922361
-3.01583501942267
-2.98816057277439
-2.96911030461458
-2.95007798011282
-2.94004431728321
-2.93009448551115
-2.92994141220072
-2.93235434704336
-2.94089405907097
-2.95102738719522
-2.97953538923341
-2.99185211785146
-3.04456866844778
-3.06312552451694
-3.12208692477451
-3.17840575259061
-3.2343866843118
-3.29819954698284
-3.35359415497345
-3.38555799462602
-3.4356274977573
-3.51009516774302
-3.56683994655375
-3.6240592067206
-3.66113019503191
-3.72066459147688
-3.76355132206806
-3.80315547253202
-3.82881887461334
-3.86091653065783
-3.86781535980259
-3.87300344376449
-3.86762117590411
-3.84037175795117
-3.81837101742081
-3.73246706368422
-3.65572856192956
-3.60105160968589
-3.50014289007802
-3.30279056557987
-3.12519856359333
-2.87550124234697
-2.64364206571568
-2.53552803281851
-2.23909842831771
-1.94971628496902
-1.45453364945255
-1.2931047932143
-0.807080053912492
-0.542982261223743
0.0626164505898884
0.562094629553345
1.12156842101534
1.53068657280216
1.80807489933918
2.46069088500698
2.67174525475832
3.20131629757811
4.01825390268705
4.64285797366043
4.88638903667885
5.27425767005144
5.70976187424878
6.18867173177058
6.99856106813457
7.21218880660745
7.60310690649958
8.01459600405789
8.42828380688273
8.63025437003191
8.88383812914893
9.12698461257647
9.46489840137486
9.53768188959749
9.79345100834179
9.91120392126663
10.0733329772981
10.2329390367644
10.317148731376
10.4269587786869
10.5652651644316
10.6781826890194
10.7509448452385
10.8711177520091
10.9313686691226
11.048153813547
11.1851030307113
11.3635845445404
11.4942708112109
11.6670173312892
11.7232718798631
11.8549482945681
11.996467846749
12.1744242431005
12.351965118334
12.4760973560667
12.5025101596587
12.6228099865145
12.7474509092736
12.9205446721072
13.0013472351851
13.1759384294842
13.1906706013455
13.3487922359571
13.6036757217206
13.6894623896111
13.8649574947996
14.064368620799
14.4245261325292
14.5159513706669
14.8857255821061
15.0941363248019
15.5614702793698
15.6534471444612
16.0324662055713
16.6854692255981
16.9288940960734
17.4373497779103
17.7032324384396
18.3071234094809
18.6690336263409
19.2150559161563
19.7244997247437
20.3886459137615
20.7050953545362
21.2921943588117
21.8751712227993
21.9255000210375
22.5191463658004
23.0339337473442
23.1302103510979
23.674907701706
24.0345523447687
24.2658371255387
24.3816208280425
24.5500307638234
24.7744886884366
24.8975574846657
24.9361887119576
24.9922850020775
24.978391480501
24.9523017424858
24.8890600078451
24.8347745583871
24.6109497739775
24.5929017651321
24.2895378902388
24.2539761460391
23.9275482174552
23.7738060331386
23.4486499026073
23.3417327969021
23.1621673892385
22.8293512044306
22.5682834535358
22.3464843593581
22.2545280083049
22.0957599619787
21.8257499190149
21.5869190054787
21.4888990756467
21.3961604085248
21.2896925761598
21.2290411999709
21.1719493466848
21.130055921199
21.1386144940077
21.2071316237771
21.2604654919809
21.3911991082553
21.5207685856976
21.594637439738
21.8267728358378
21.9488127588676
22.2395587918478
22.307424421239
22.584258507893
22.6960147852546
22.8804931837476
23.1004128934298
23.2354326280541
23.2844810927634
23.316209742506
23.2290375813075
23.1401372969915
23.0522034332583
22.7660681888698
22.6358754640423
22.2978676132319
21.8344794703649
21.7783546023262
21.2041537684361
20.6745025575481
20.535184950934
19.9104392195759
19.7870322488647
19.1251216390783
18.9832785775268
18.6503689482526
18.2060470635603
17.7116873587126
17.3777492666405
17.2726760690599
17.0807231256256
16.6997659920167
16.4858247906769
16.44505284187
16.2972997389501
16.1841880218427
16.1534960709389
16.1262712073774
16.1527928563906
16.2142696103635
16.2378168448675
16.3515465869011
16.5743184878804
16.6026005538416
16.9112939425965
17.0925982590648
17.2992929166771
17.4230622102922
17.7608519432828
17.8775197721501
18.1964938716038
18.2292068623764
18.4504962140683
18.524966385088
18.6712776590423
18.7190060963285
18.7278942751431
18.7104693979765
18.631668015632
18.5772525386284
18.3071632474899
18.1614723075941
17.8990475126686
17.6247064053567
17.4329433731629
17.2539531509742
16.8594382850565
16.6316787460317
16.1094378689549
15.8490865764822
15.4461372478556
15.0643306157014
14.5699312154971
14.4894592258173
13.9185024899959
13.7524543390071
13.3618929115843
12.8629517011281
12.7105186450242
12.1963400689338
12.0243945830479
11.5963091095206
11.1474480924979
11.0644838465537
10.5619470574571
10.3535658911957
10.0688429157484
9.91580752438508
9.64532789327717
9.30570553337567
9.25158982978909
8.97332467291068
8.72468861994229
8.60583798519093
8.5079501592053
8.36237227278446
8.21661057828358
8.10498485096707
8.00487698328523
7.92620925735219
7.84976452209164
7.77858442088626
7.77415635846535
7.71523958404349
7.6900229316845
7.67319809986714
7.66435218118064
7.6628172465771
7.67740533578613
7.69593227439889
7.71461443818444
7.73420508163501
7.81492987714737
7.87673127739001
7.92922476168361
7.98478840753889
8.15859771326717
8.18012164598277
8.37007511417573
8.48271820074611
8.57920425424176
8.84744088759487
8.9959240000849
9.37158231901688
9.58111390447668
9.65022389291288
9.95615231591844
10.3774153569458
10.6951650765605
11.0872685354894
11.244096728915
11.6828555806389
12.0389492428848
12.3099783717635
12.837432967545
12.9379782286988
13.3924562210974
13.5599442895964
14.0126580863587
14.146251509102
14.4493689939426
14.538123610318
14.725308404781
14.8675578795683
14.9605537200043
14.9692449351356
14.9377504484062
14.8970230111917
14.7800895243605
14.6813346268569
14.5061423955705
14.3038101446796
13.8940853954935
13.5869083218182
13.2235429917892
12.9851942940665
12.4062143877046
11.9908896295064
11.6708630021323
11.1244921884929
10.9667850642659
10.4502745907573
10.1572831684904
9.50409450316087
9.02874222121983
8.9257507687319
8.43330552775359
7.89067720946025
7.70182067395011
7.39121664046607
7.01231101607092
6.70350863944605
6.64304660210387
6.2460175160494
6.07712574179385
5.87107394523763
5.69503381000925
5.47989546536391
5.18303396611606
5.02979380646517
4.86822914035395
4.60574962618513
4.53340653804582
4.29721414340866
4.24678432205319
3.99861851681143
3.82645288631497
3.74367107496669
3.51461627281966
3.43024575258864
3.31027517624772
3.12340360024174
3.04826656043332
2.9044814519531
2.66409389061374
2.53344601744266
2.47617068929338
2.24243712959672
2.11777585877425
2.02142077984545
1.8925591921377
1.69980064085623
1.60517411808491
1.39919482895148
1.33347167983817
1.12905570801163
1.07811402347339
0.961754919519686
0.75376548684962
0.696450211153079
0.639279928496669
0.477928862729573
0.418348039075606
0.312910950725233
0.232420359580009
0.160745423143289
0.0802116846988644
0.00663232746768122
-0.121695498419089
-0.16824042657481
-0.248302469692005
-0.298679901506496
-0.358724661666213
-0.448836613631462
-0.535402023103983
-0.573568728603043
-0.661765951831339
-0.710974519938837
-0.777859080909796
-0.802746589782287
-0.871389349999799
-0.945477106196314
-0.996583487717658
-1.03162330774107
-1.07899294277235
-1.10651116204958
-1.12736063091849
-1.16171663827162
-1.2093256521859
-1.23898729815283
-1.25321462261285
-1.2730933961642
-1.29828683581896
-1.30822683653823
-1.32485452972811
-1.33426097892469
-1.34962264242901
-1.35371948412603
-1.3611201079319
-1.35593155325195
-1.34959590522745
-1.34480390862888
-1.33067043644906
-1.30819094144224
-1.26009054390271
-1.22793256581644
-1.19785631250378
-1.15619650808069
-1.11086200253627
-1.04006920147488
-1.00046122826305
-0.962592326469835
-0.92059675407011
-0.792573163331694
-0.756855487880933
-0.671755444844356
-0.580183073756702
-0.555948459206314
-0.39571293919972
-0.319087907334861
-0.179627852028214
-0.173493915540341
-0.0384280061869943
0.155034087483282
0.252674418491437
0.371519099103621
0.503372280496106
0.552239054322375
0.791665591458281
0.929480860639567
0.956443384579854
1.19596761147893
1.24091801200962
1.4680960887721
1.59651541793074
1.62787507489679
1.79105781339292
1.87511089808537
2.00144135985131
2.07064726223799
2.11142168763584
2.13788888903481
2.15578959094092
2.15031625813772
2.10859745140383
2.05458737928452
1.99290065946531
1.8789409629575
1.75245059806422
1.61562349007763
1.32313769026649
1.19818824135035
0.783385209518137
0.732021303079986
0.397859692059887
0.109600697007555
-0.247001786861699
-0.504868250342589
-0.982333676072658
-1.01680695058675
-1.56854707255057
-1.99360563661393
-2.22868054677116
-2.54484344508353
-2.85863348111002
-3.14897947733116
-3.63048915820777
-3.86416911508293
-4.19597069531143
-4.56027637194776
-4.63774830299727
-5.04802749589952
-5.17068413296872
-5.48108641444837
-5.69070127220033
-5.97786261625575
-6.22774506888978
-6.34801340112767
-6.42791976437136
-6.63635679826499
-6.71820940547693
-6.89751794056028
-7.01107579703122
-7.16693346580882
-7.20080251640706
-7.30417826146893
-7.37491266819492
-7.40335931165585
-7.46642655500869
-7.50134002655739
-7.54517303453815
-7.60044875975517
-7.63008721539198
-7.64831914146201
-7.66335166358425
-7.69317218321523
-7.71571255826072
-7.73146937674705
-7.74252792469409
-7.76860479216172
-7.77232951750944
-7.78959242318603
-7.80556409928642
-7.82426812380931
-7.83691449763362
-7.84743448480473
-7.85912451629445
-7.87408530153777
-7.90472383137602
-7.91886637031307
-7.9460775116144
-7.96170915059314
-8.01001742284672
-8.02689546746734
-8.05856565064488
-8.07586629538363
-8.12805156876656
-8.14824128451085
-8.1830537709788
-8.21074210488517
-8.23797517067929
-8.26661688721867
-8.28065179417117
-8.3198995035598
-8.32818380153335
-8.36174638923834
-8.37764947211019
-8.40866436779076
-8.42985791859071
-8.44756245037529
-8.46704308220368
-8.49523861053337
-8.52851375540813
-8.55062891436512
-8.57510636785068
-8.62122404379945
-8.67004008258399
-8.68991581558821
-8.72904453914833
-8.76662528207585
-8.83675633040336
-8.84013514391828
-8.9192552478001
-8.94706975616856
-9.00482778769449
-9.0492098171341
-9.09518601890744
-9.13075765480989
-9.20123973320062
-9.21429952824209
-9.25711025486457
-9.31797877318055
-9.33418891685717
-9.39405331523293
-9.40327749838091
-9.45382683810857
-9.48174263498307
-9.53690876407675
-9.56634725431088
-9.62411437452575
-9.70507546923844
-9.72455790131959
-9.77198238770463
-9.87454709590764
-9.93036383515731
-9.94394926482542
-9.98936676680323
-10.0527233149559
-10.1019904468703
-10.1226622631397
-10.1441896002543
-10.1579998670113
-10.1606937109573
-10.1534016017876
-10.1376945152433
-10.1018888889969
-10.065352249167
-10.0559483183293
-9.99114891025435
-9.94601228303228
-9.90384576935077
-9.79119325613391
-9.73222604835228
-9.67830269117422
-9.62778973504549
-9.55720678337283
-9.48213227250138
-9.4419446456382
-9.3900684474946
-9.32763045552201
-9.31057780995687
-9.28773329720337
-9.25915583781953
-9.25272104009285
-9.2613774896334
-9.27605920881548
-9.28701595048492
-9.33869593083814
-9.37062786823416
-9.39462195807374
-9.46520508199802
-9.5021195153509
-9.59515572376817
-9.62120820622784
-9.66055606390779
-9.77766683865775
-9.79388824799624
-9.87364453447136
-9.93242751777135
-10.0040165474712
-10.0353085458817
-10.1049263125194
-10.1819529697858
-10.2284319035875
-10.2638051012418
-10.2849401679735
-10.3452513014019
-10.3571129984233
-10.3883936238088
-10.4158277938064
-10.4308477131353
-10.4383428367311
-10.443184446765
-10.4381878655474
-10.4370969878962
-10.427493319453
-10.399949367588
-10.3800983587422
-10.3675454558866
-10.3257148041213
-10.3111990174524
-10.2534918757927
-10.2145558994925
-10.1953848577952
-10.1426859245228
-10.0839713661387
-10.0655104009276
-10.0098560741181
-9.95517361538088
-9.90452720722342
-9.8521939306067
-9.8048713317002
-9.76089390842787
-9.70460454531949
-9.65726530139307
-9.64187889951902
-9.56849314196556
-9.55692887427157
-9.48493827476887
-9.4732437246279
-9.43419289301118
-9.38243912669339
-9.34728868176004
-9.3027610699073
-9.27459064907774
-9.2474176582564
-9.19013814983181
-9.15773074304515
-9.15189543386404
-9.10230333384474
-9.07270198409847
-9.03986079549157
-9.03336603782013
-8.98218735697142
-8.95251726848443
-8.92758223018287
-8.90468824100532
-8.88778201261464
-8.85564913987657
-8.8207524586199
-8.78501918759077
-8.76950945787324
-8.7281014024569
-8.70450758254345
-8.691412958563
-8.67408551143193
-8.65275828706315
-8.63427010447176
-8.62408270691548
-8.58893792574301
-8.56029434220145
-8.55298785280183
-8.49497511909636
-8.46972331923364
-8.42542660161297
-8.38135989661318
-8.33444780967609
-8.27644559377956
-8.24757410239487
-8.17608261670106
-8.12095807321392
-8.06026002864934
-8.04148394107002
-8.00840990965835
-7.95668057080767
-7.92680847660844
-7.88821471021851
-7.85044055806291
